{"sizes":[17,8,1],"layers":[{"0":{},"1":{},"2":{},"3":{},"4":{},"5":{},"6":{},"7":{},"8":{},"9":{},"10":{},"11":{},"12":{},"13":{},"14":{},"15":{},"16":{}},{"0":{"bias":-0.7086156606674194,"weights":{"0":1.8110895156860352,"1":2.4107649326324463,"2":-0.8149197697639465,"3":1.6852059364318848,"4":2.6548306941986084,"5":0.6554495096206665,"6":0.36289045214653015,"7":-0.43501582741737366,"8":-1.4788880348205566,"9":-2.95649790763855,"10":-0.8246011734008789,"11":-1.9114142656326294,"12":2.85384464263916,"13":7.490207195281982,"14":-1.804520845413208,"15":-3.804429531097412,"16":-0.7181961536407471}},"1":{"bias":1.0121746063232422,"weights":{"0":1.7618085145950317,"1":0.15393458306789398,"2":0.15071628987789154,"3":-0.0112918084487319,"4":0.7507264614105225,"5":0.7306064367294312,"6":-1.3024697303771973,"7":-1.5134949684143066,"8":-0.8596652150154114,"9":0.06600727140903473,"10":-1.6464197635650635,"11":0.20509907603263855,"12":-0.4623049795627594,"13":-0.4955642521381378,"14":-1.2435212135314941,"15":-1.3204950094223022,"16":-0.9505995512008667}},"2":{"bias":-0.711073637008667,"weights":{"0":-0.17430651187896729,"1":-0.09479241818189621,"2":-0.2739465534687042,"3":-0.16882634162902832,"4":-0.45456770062446594,"5":0.3503645956516266,"6":0.7328392267227173,"7":-0.028225921094417572,"8":0.5548064112663269,"9":-0.31788909435272217,"10":1.0016896724700928,"11":0.5058596730232239,"12":0.1952776163816452,"13":2.1548964977264404,"14":0.5195633172988892,"15":1.5208439826965332,"16":1.4553030729293823}},"3":{"bias":-0.8176330327987671,"weights":{"0":-0.12216570973396301,"1":0.04975670203566551,"2":-0.024053800851106644,"3":-0.36673828959465027,"4":2.64951753616333,"5":-0.0948520228266716,"6":-0.5797075033187866,"7":-0.43011900782585144,"8":-3.2105023860931396,"9":-1.4541890621185303,"10":-1.004867434501648,"11":0.6789588332176208,"12":0.733828604221344,"13":5.36397123336792,"14":-2.948119640350342,"15":0.35230839252471924,"16":1.1302063465118408}},"4":{"bias":-4.529017925262451,"weights":{"0":-2.1993744373321533,"1":0.743107259273529,"2":-0.17407342791557312,"3":-0.06200038269162178,"4":1.4371780157089233,"5":-1.2327710390090942,"6":0.2495718002319336,"7":1.0958613157272339,"8":-1.954567790031433,"9":1.0179380178451538,"10":-1.097769856452942,"11":-0.3900701701641083,"12":1.0774136781692505,"13":0.05390535667538643,"14":2.3971922397613525,"15":-0.32971712946891785,"16":2.377915859222412}},"5":{"bias":4.32609748840332,"weights":{"0":-3.455275774002075,"1":-0.46040529012680054,"2":0.9959457516670227,"3":-1.538510799407959,"4":2.3038222789764404,"5":-4.211586952209473,"6":0.709848940372467,"7":-4.069013595581055,"8":1.0657801628112793,"9":0.41163453459739685,"10":2.567671775817871,"11":-0.3448253870010376,"12":-1.0017648935317993,"13":-7.796449184417725,"14":-0.2388160228729248,"15":-2.9648332595825195,"16":1.2981674671173096}},"6":{"bias":-0.34206217527389526,"weights":{"0":-1.0226421356201172,"1":-2.368338108062744,"2":0.28026217222213745,"3":0.9856435656547546,"4":-1.2947851419448853,"5":1.288021206855774,"6":-0.27349501848220825,"7":4.1953887939453125,"8":1.0356907844543457,"9":1.5392342805862427,"10":-0.03549288213253021,"11":1.8320213556289673,"12":-1.5712029933929443,"13":0.6625860333442688,"14":0.44427189230918884,"15":-2.2209980487823486,"16":-2.4497783184051514}},"7":{"bias":5.6281046867370605,"weights":{"0":-0.6298677325248718,"1":-2.382355213165283,"2":-0.18142835795879364,"3":-4.9672017097473145,"4":-0.5726243853569031,"5":-6.361436367034912,"6":-0.46133118867874146,"7":3.2051026821136475,"8":-0.8267602920532227,"9":2.5233540534973145,"10":2.453681230545044,"11":-4.643551349639893,"12":-2.6482181549072266,"13":-9.640936851501465,"14":-1.9649420976638794,"15":0.6627890467643738,"16":1.0597444772720337}}},{"0":{"bias":-2.1451175212860107,"weights":{"0":-5.2888312339782715,"1":-3.62556791305542,"2":1.6077605485916138,"3":5.189316272735596,"4":5.713220596313477,"5":5.962566375732422,"6":4.839173793792725,"7":-6.336484432220459}}}],"outputLookup":true,"inputLookup":true,"activation":"sigmoid","trainOpts":{"iterations":2000000,"errorThresh":1e-8,"log":true,"logPeriod":5000,"learningRate":0.17,"momentum":0.1,"callbackPeriod":10,"beta1":0.9,"beta2":0.999,"epsilon":1e-8}}